<?xml version="1.0"?>
<MethodSetup Method="MLP::MLP">
  <GeneralInfo>
    <Info name="TMVA Release" value="4.1.3 [262403]"/>
    <Info name="ROOT Release" value="5.34/01 [336385]"/>
    <Info name="Creator" value="pilot"/>
    <Info name="Date" value="Thu Sep 10 12:15:53 2015"/>
    <Info name="Host" value="Darwin pb-d-128-141-150-48.cern.ch 12.2.0 Darwin Kernel Version 12.2.0: Sat Aug 25 00:48:52 PDT 2012; root:xnu-2050.18.24~1/RELEASE_X86_64 x86_64"/>
    <Info name="Dir" value="/Users/pilot/ROOT/root/tmva/test"/>
    <Info name="Training events" value="5000"/>
    <Info name="TrainingTime" value="2.19634968e+02"/>
    <Info name="AnalysisType" value="Regression"/>
  </GeneralInfo>
  <Options>
    <Option name="NCycles" modified="Yes">20000</Option>
    <Option name="HiddenLayers" modified="Yes">N+20</Option>
    <Option name="NeuronType" modified="Yes">tanh</Option>
    <Option name="RandomSeed" modified="No">1</Option>
    <Option name="EstimatorType" modified="No">MSE</Option>
    <Option name="NeuronInputType" modified="No">sum</Option>
    <Option name="V" modified="Yes">False</Option>
    <Option name="VerbosityLevel" modified="No">Default</Option>
    <Option name="VarTransform" modified="Yes">Norm</Option>
    <Option name="H" modified="Yes">False</Option>
    <Option name="CreateMVAPdfs" modified="No">False</Option>
    <Option name="IgnoreNegWeightsInTraining" modified="No">False</Option>
    <Option name="TrainingMethod" modified="Yes">BFGS</Option>
    <Option name="LearningRate" modified="No">2.000000e-02</Option>
    <Option name="DecayRate" modified="No">1.000000e-02</Option>
    <Option name="TestRate" modified="Yes">6</Option>
    <Option name="EpochMonitoring" modified="No">False</Option>
    <Option name="Sampling" modified="Yes">3.000000e-01</Option>
    <Option name="SamplingEpoch" modified="Yes">8.000000e-01</Option>
    <Option name="SamplingImportance" modified="No">1.000000e+00</Option>
    <Option name="SamplingTraining" modified="No">True</Option>
    <Option name="SamplingTesting" modified="No">False</Option>
    <Option name="ResetStep" modified="No">50</Option>
    <Option name="Tau" modified="No">3.000000e+00</Option>
    <Option name="BPMode" modified="No">sequential</Option>
    <Option name="BatchSize" modified="No">-1</Option>
    <Option name="ConvergenceImprove" modified="Yes">1.000000e-06</Option>
    <Option name="ConvergenceTests" modified="Yes">15</Option>
    <Option name="UseRegulator" modified="Yes">False</Option>
    <Option name="UpdateLimit" modified="No">10000</Option>
    <Option name="CalculateErrors" modified="No">False</Option>
    <Option name="WeightRange" modified="No">1.000000e+00</Option>
  </Options>
  <Variables NVar="16">
    <Variable VarIndex="0" Expression="h1_top" Label="h1_top" Title="h1_top" Unit="" Internal="h1_top" Type="F" Min="5.92544004e-02" Max="9.93692160e-01"/>
    <Variable VarIndex="1" Expression="h2_top" Label="h2_top" Title="h2_top" Unit="" Internal="h2_top" Type="F" Min="2.13648990e-01" Max="9.98362482e-01"/>
    <Variable VarIndex="2" Expression="h3_top" Label="h3_top" Title="h3_top" Unit="" Internal="h3_top" Type="F" Min="7.49875158e-02" Max="9.94805157e-01"/>
    <Variable VarIndex="3" Expression="h4_top" Label="h4_top" Title="h4_top" Unit="" Internal="h4_top" Type="F" Min="1.12945728e-01" Max="9.98352945e-01"/>
    <Variable VarIndex="4" Expression="h1_W" Label="h1_W" Title="h1_W" Unit="" Internal="h1_W" Type="F" Min="5.86742945e-02" Max="9.87447441e-01"/>
    <Variable VarIndex="5" Expression="h2_W" Label="h2_W" Title="h2_W" Unit="" Internal="h2_W" Type="F" Min="1.87061980e-01" Max="9.96112764e-01"/>
    <Variable VarIndex="6" Expression="h3_W" Label="h3_W" Title="h3_W" Unit="" Internal="h3_W" Type="F" Min="7.07134902e-02" Max="9.75437701e-01"/>
    <Variable VarIndex="7" Expression="h4_W" Label="h4_W" Title="h4_W" Unit="" Internal="h4_W" Type="F" Min="9.23629180e-02" Max="9.91731286e-01"/>
    <Variable VarIndex="8" Expression="h1_Z" Label="h1_Z" Title="h1_Z" Unit="" Internal="h1_Z" Type="F" Min="6.44993186e-02" Max="9.84111905e-01"/>
    <Variable VarIndex="9" Expression="h2_Z" Label="h2_Z" Title="h2_Z" Unit="" Internal="h2_Z" Type="F" Min="1.89560309e-01" Max="9.96097982e-01"/>
    <Variable VarIndex="10" Expression="h3_Z" Label="h3_Z" Title="h3_Z" Unit="" Internal="h3_Z" Type="F" Min="5.75311072e-02" Max="9.81590748e-01"/>
    <Variable VarIndex="11" Expression="h4_Z" Label="h4_Z" Title="h4_Z" Unit="" Internal="h4_Z" Type="F" Min="9.22026113e-02" Max="9.92351592e-01"/>
    <Variable VarIndex="12" Expression="h1_H" Label="h1_H" Title="h1_H" Unit="" Internal="h1_H" Type="F" Min="6.55680299e-02" Max="9.88171816e-01"/>
    <Variable VarIndex="13" Expression="h2_H" Label="h2_H" Title="h2_H" Unit="" Internal="h2_H" Type="F" Min="2.02807859e-01" Max="9.97953236e-01"/>
    <Variable VarIndex="14" Expression="h3_H" Label="h3_H" Title="h3_H" Unit="" Internal="h3_H" Type="F" Min="6.15268536e-02" Max="9.90974963e-01"/>
    <Variable VarIndex="15" Expression="h4_H" Label="h4_H" Title="h4_H" Unit="" Internal="h4_H" Type="F" Min="1.02714464e-01" Max="9.97270763e-01"/>
  </Variables>
  <Spectators NSpec="2">
    <Spectator SpecIndex="0" Expression="targetX" Label="targetX" Title="targetX" Unit="" Internal="targetX" Type="F" Min="0.00000000e+00" Max="1.00000000e+00"/>
    <Spectator SpecIndex="1" Expression="targetY" Label="targetY" Title="targetY" Unit="" Internal="targetY" Type="F" Min="0.00000000e+00" Max="1.00000000e+00"/>
  </Spectators>
  <Classes NClass="1">
    <Class Name="Regression" Index="0"/>
  </Classes>
  <Targets NTrgt="2">
    <Target TargetIndex="0" Expression="targetX" Label="targetX" Title="targetX" Unit="" Internal="targetX" Type="F" Min="0.00000000e+00" Max="1.00000000e+00"/>
    <Target TargetIndex="1" Expression="targetY" Label="targetY" Title="targetY" Unit="" Internal="targetY" Type="F" Min="0.00000000e+00" Max="1.00000000e+00"/>
  </Targets>
  <Transformations NTransformations="1">
    <Transform Name="Normalize">
      <Selection>
        <Input NInputs="18">
          <Input Type="Variable" Label="h1_top" Expression="h1_top"/>
          <Input Type="Variable" Label="h2_top" Expression="h2_top"/>
          <Input Type="Variable" Label="h3_top" Expression="h3_top"/>
          <Input Type="Variable" Label="h4_top" Expression="h4_top"/>
          <Input Type="Variable" Label="h1_W" Expression="h1_W"/>
          <Input Type="Variable" Label="h2_W" Expression="h2_W"/>
          <Input Type="Variable" Label="h3_W" Expression="h3_W"/>
          <Input Type="Variable" Label="h4_W" Expression="h4_W"/>
          <Input Type="Variable" Label="h1_Z" Expression="h1_Z"/>
          <Input Type="Variable" Label="h2_Z" Expression="h2_Z"/>
          <Input Type="Variable" Label="h3_Z" Expression="h3_Z"/>
          <Input Type="Variable" Label="h4_Z" Expression="h4_Z"/>
          <Input Type="Variable" Label="h1_H" Expression="h1_H"/>
          <Input Type="Variable" Label="h2_H" Expression="h2_H"/>
          <Input Type="Variable" Label="h3_H" Expression="h3_H"/>
          <Input Type="Variable" Label="h4_H" Expression="h4_H"/>
          <Input Type="Target" Label="targetX" Expression="targetX"/>
          <Input Type="Target" Label="targetY" Expression="targetY"/>
        </Input>
        <Output NOutputs="18">
          <Output Type="Variable" Label="h1_top" Expression="h1_top"/>
          <Output Type="Variable" Label="h2_top" Expression="h2_top"/>
          <Output Type="Variable" Label="h3_top" Expression="h3_top"/>
          <Output Type="Variable" Label="h4_top" Expression="h4_top"/>
          <Output Type="Variable" Label="h1_W" Expression="h1_W"/>
          <Output Type="Variable" Label="h2_W" Expression="h2_W"/>
          <Output Type="Variable" Label="h3_W" Expression="h3_W"/>
          <Output Type="Variable" Label="h4_W" Expression="h4_W"/>
          <Output Type="Variable" Label="h1_Z" Expression="h1_Z"/>
          <Output Type="Variable" Label="h2_Z" Expression="h2_Z"/>
          <Output Type="Variable" Label="h3_Z" Expression="h3_Z"/>
          <Output Type="Variable" Label="h4_Z" Expression="h4_Z"/>
          <Output Type="Variable" Label="h1_H" Expression="h1_H"/>
          <Output Type="Variable" Label="h2_H" Expression="h2_H"/>
          <Output Type="Variable" Label="h3_H" Expression="h3_H"/>
          <Output Type="Variable" Label="h4_H" Expression="h4_H"/>
          <Output Type="Target" Label="targetX" Expression="targetX"/>
          <Output Type="Target" Label="targetY" Expression="targetY"/>
        </Output>
      </Selection>
      <Class ClassIndex="0">
        <Ranges>
          <Range Index="0" Min="5.9254400432109833e-02" Max="9.9369215965270996e-01"/>
          <Range Index="1" Min="2.1364898979663849e-01" Max="9.9836248159408569e-01"/>
          <Range Index="2" Min="7.4987515807151794e-02" Max="9.9480515718460083e-01"/>
          <Range Index="3" Min="1.1294572800397873e-01" Max="9.9835294485092163e-01"/>
          <Range Index="4" Min="5.8674294501543045e-02" Max="9.8744744062423706e-01"/>
          <Range Index="5" Min="1.8706198036670685e-01" Max="9.9611276388168335e-01"/>
          <Range Index="6" Min="7.0713490247726440e-02" Max="9.7543770074844360e-01"/>
          <Range Index="7" Min="9.2362917959690094e-02" Max="9.9173128604888916e-01"/>
          <Range Index="8" Min="6.4499318599700928e-02" Max="9.8411190509796143e-01"/>
          <Range Index="9" Min="1.8956030905246735e-01" Max="9.9609798192977905e-01"/>
          <Range Index="10" Min="5.7531107217073441e-02" Max="9.8159074783325195e-01"/>
          <Range Index="11" Min="9.2202611267566681e-02" Max="9.9235159158706665e-01"/>
          <Range Index="12" Min="6.5568029880523682e-02" Max="9.8817181587219238e-01"/>
          <Range Index="13" Min="2.0280785858631134e-01" Max="9.9795323610305786e-01"/>
          <Range Index="14" Min="6.1526853591203690e-02" Max="9.9097496271133423e-01"/>
          <Range Index="15" Min="1.0271446406841278e-01" Max="9.9727076292037964e-01"/>
          <Range Index="16" Min="0.0000000000000000e+00" Max="1.0000000000000000e+00"/>
          <Range Index="17" Min="0.0000000000000000e+00" Max="1.0000000000000000e+00"/>
        </Ranges>
      </Class>
    </Transform>
  </Transformations>
  <MVAPdfs/>
  <Weights>
    <Layout NLayers="3">
      <Layer Index="0" NNeurons="17">
        <Neuron NSynapses="36">
          4.9168890676333521e-01 2.7707865675112311e+00 1.3197214347323172e+00 1.5955201321198054e+00 -1.2702114870407748e+00 -1.1016931313072267e+00 -6.9091062031140393e-01 1.8331494189420965e+00 -1.0820895515875433e+00 -9.7810941832715559e-01 -1.0227721483837526e+00 1.3618928299887781e-01 -1.0930964500523268e+00 -1.5432427097365722e+00 -1.7312026830402107e+00 1.2438384763083712e+00 1.4801707835910374e-01 1.3885661034400765e+00 4.5957804061972946e-02 2.7667435125584108e+00 -3.8247340658613149e-01 -7.7861680574710462e-02 -1.4680895470883751e-01 4.9974316582400080e-01 4.0423194076571195e-01 2.1024873921075402e+00 1.7979569399017359e+00 -1.8838958730689568e+00 -1.7066859658488596e+00 1.2321008263216890e-01 1.8652440030910686e-01 2.1408082937855579e+00 1.3406367810958064e-01 -7.2157178640881048e-01 1.1379457632438481e+00 -8.7699607255885104e-01 
        </Neuron>
        <Neuron NSynapses="36">
          -1.4820851377880311e+00 2.9576460464439935e+00 -1.4335140637685679e+00 1.5589346607731009e+00 1.1582819039798498e+00 2.0223685104632966e-01 2.5658183994520125e+00 1.1320149431101532e+00 -9.4946061643953261e-01 -2.5489985756130578e+00 -2.1141977617371854e-01 -1.4944577675487210e+00 1.4646818755680053e+00 2.3136571969230886e+00 1.1499611327301427e+00 -3.3028305810782332e-01 -5.0739433662884748e-01 5.1142207561304254e-01 -1.6869365513032526e+00 -6.7042089300235708e-01 -2.6505984580151885e+00 -2.6084823491844911e+00 1.8937774847325930e+00 1.6229248887372612e+00 -7.2362027952188157e-01 1.1782848123799898e+00 1.3565324711582079e+00 1.6959408136503531e+00 1.3022507382034296e+00 -9.6354313273925030e-01 4.6643271910222595e-01 -1.6097620714334133e+00 1.7241208016807161e+00 -2.3711746014740878e+00 1.0726952784999331e+00 -1.4972025691181812e+00 
        </Neuron>
        <Neuron NSynapses="36">
          2.6926344728733911e+00 6.0781253760620946e-01 8.9173596313069126e-01 -4.7141307839657276e-01 -1.4639222301524952e+00 -1.4238784580376593e+00 -4.1859458419092394e-01 -2.4439442347380020e+00 2.5820094092794834e+00 6.5884676785703655e-01 4.0904346015101317e-01 2.4930382087147068e-01 -1.0673480448523087e+00 -1.0653872842492502e+00 5.7550858650348569e-01 -7.9144691436083958e-01 -2.3540601584120044e+00 -1.5675252766684269e+00 -6.0837704018017058e-01 -2.2642285939316348e-01 1.3461569824222357e+00 -3.8801415611251644e-01 -5.4042184681936201e-01 1.9793167871960662e+00 -2.5560624835574881e+00 -1.5223141877096329e+00 -2.1010867808730440e+00 6.3755107089411489e-01 -2.5871429721360184e+00 -1.1971413519924285e+00 6.7065246933803291e-01 2.2664056205147323e+00 -2.0081200268677981e+00 1.7690856856632629e+00 -2.3908714554669275e+00 -8.3352395126381507e-01 
        </Neuron>
        <Neuron NSynapses="36">
          1.6880156792546414e-01 2.2327305258471164e-01 -2.3831201687479231e+00 9.2790765199188685e-01 9.4102865654254120e-01 4.0755076641775474e-02 -1.0507926359442155e+00 5.6690787905989226e-01 -6.1608005423252545e-02 -7.6561390950034736e-01 6.9485431884712823e-01 -7.5966572464950788e-01 -1.1821971847118244e+00 -1.6848064863177367e-01 -1.7589153711133023e+00 2.6913111432480701e+00 -7.5883968589601580e-01 7.7496261966128288e-01 -8.3504013015678069e-01 -7.0626195898951694e-02 -1.7148034371600072e+00 1.1964259357908613e+00 8.4579443160458356e-01 -2.6089561726045969e+00 2.3720060817541593e+00 -1.0165945480412821e+00 -8.6153019099145678e-01 5.9023486006793113e-01 2.1464451696440285e+00 -9.9505663392100530e-01 5.0382955922915940e-01 1.5116635784426029e+00 1.6524415436289850e+00 9.0113285843668478e-01 -2.2136132962364106e+00 -1.8429095439836038e-01 
        </Neuron>
        <Neuron NSynapses="36">
          -9.9858513679113958e-01 9.7332431206634940e-01 6.1224620224643878e-01 -8.2295877783550331e-01 -1.8824253491336351e-01 -1.8789853056329001e-01 -1.8801716926196448e+00 6.0645631241930076e-01 1.4042124070797730e+00 -1.1507823042039440e+00 -4.1832265803302432e-01 4.5379539338192548e-01 9.3848111812990742e-01 -3.6363306615948415e-01 8.2935731521830969e-01 -1.6733637597069619e+00 1.3670183855049316e+00 -3.0129472229393325e-02 9.3537391367624501e-01 7.1736128615065753e-01 1.6359697593141356e+00 -1.6371259319988645e+00 4.7248557526732193e-01 3.8834099089612029e-01 -4.5799760148475122e-01 -8.8857345093502216e-01 1.1450732440616094e+00 1.5748233395888580e+00 -5.8784566654917503e-01 4.9074142907368701e-01 1.7681758216286192e+00 -8.8727305329734685e-01 7.6638815944846628e-01 -7.3084528014766292e-01 2.3857705899080667e-01 -9.5374137767330103e-01 
        </Neuron>
        <Neuron NSynapses="36">
          -2.9943303314963607e+00 6.8618372023819241e-01 7.7931866918203441e-01 -2.2846459929592520e+00 1.3477820738975824e-01 -1.2709511190723199e-01 3.0564770907909361e-01 7.5120251295094875e-01 -1.3060067575347584e-01 2.9350321332185747e-01 1.6095094896413523e-01 1.1321435178639846e-01 1.2788677184053761e+00 2.1785927822540199e+00 5.5851771303966813e-01 7.3147698813493311e-01 -2.6143371365752968e+00 -5.1981182459466702e-01 2.0455697393433242e-01 -8.0259325665909098e-01 -1.8926552879265865e-01 -1.2044237456226108e+00 -3.7773319771171293e-02 -1.7734398792842090e+00 -9.2948751748716874e-01 2.9202190941603762e-01 1.4604066968836701e-01 -2.8828317454638025e-01 2.2109650418908222e+00 1.2625322714606431e+00 8.4073884938722709e-01 1.4615838592862964e+00 -9.9080882136467097e-01 -7.6089224157285884e-01 -1.9636676519680188e-01 9.3763334607745497e-01 
        </Neuron>
        <Neuron NSynapses="36">
          8.6090809222524733e-01 6.2287399825103562e-01 1.8209580506912673e+00 -9.4676979573848086e-01 -1.6428397970688686e+00 -4.5093315339174245e-01 -1.7056097381499848e+00 8.7540724692926686e-01 2.0272870949844606e+00 -1.5571923606011207e+00 1.0168894331298282e+00 3.3038417353719907e-01 -1.8216152468021558e+00 -1.6743330618768095e+00 1.5094534195715614e+00 -7.0626886944529588e-01 1.7741489984444601e+00 -1.1667462885551174e+00 2.1019611965763474e+00 -2.1778862659351250e+00 2.0261662631510124e+00 1.7776856523256266e+00 -8.4770414843081598e-01 -1.7647167672083401e+00 -3.0156502918415837e+00 9.7397090309755552e-01 -1.5076928117247506e+00 -1.3819650444427893e+00 -2.4633007191744807e+00 2.9747596169144785e-01 -7.2554431246582618e-01 -1.0429641230435098e+00 1.2592902438427931e+00 -7.2688411197153979e-01 9.0610916474398684e-01 -6.7754051273682925e-01 
        </Neuron>
        <Neuron NSynapses="36">
          -1.3012057722119956e+00 1.3164456000430906e+00 4.4804604540813164e-01 -3.9796522383203020e-01 -1.2508707807388497e+00 -1.7166837903858931e+00 -1.0531955628564398e+00 -5.3011674034908640e-01 -1.4763596903701412e-01 1.2030564713776237e+00 2.3222532956847250e+00 7.7453269710823092e-01 3.6153558056527874e-01 -1.2933627116216201e-01 -1.6947092248868225e+00 7.8871026513148146e-01 6.3362915302092315e-03 6.0575307475497320e-01 -1.5745141536414626e+00 -3.1830005568500114e-01 -2.9652220226735010e-01 -8.3967147717758345e-02 -5.4751277412055943e-01 -3.5710592240326028e-01 1.9251973943974501e+00 8.6052563105396918e-01 9.1606878766348515e-02 -4.6219623789343778e-01 1.1922520727056001e+00 -1.0988872448860605e-01 -1.3767948468924869e+00 7.0706241197920100e-02 -1.7865983162976682e+00 -1.2662110531428707e+00 -1.1876266972934892e+00 1.5827809459137341e+00 
        </Neuron>
        <Neuron NSynapses="36">
          -1.6268609532240168e+00 1.0863004220915631e+00 -1.8010780486290801e+00 9.6945147458225744e-01 -1.0096319063660883e+00 1.6099710136144610e-01 4.2253700456231863e-01 -1.9726102315639480e+00 2.8115450242196353e-02 1.0582828920503995e-01 -1.9456462929762688e+00 -2.0061786696487562e+00 -1.8524746645794976e+00 -3.8470903090260899e-01 1.5654179137678996e+00 -1.3734591593935894e+00 3.4370812244080012e-01 -7.2561967400454430e-01 -7.5217297054035182e-01 -1.9549308204570546e+00 -9.1024885089715935e-01 -2.4450097280540306e+00 1.6777650941995943e+00 -1.4686618700406389e+00 -1.2643998964002632e+00 1.0997310202243284e+00 6.4478649637043167e-02 8.1007533906457499e-02 2.0783968727439670e+00 -2.3518777702549722e+00 1.0697809134251131e+00 1.1495637243103616e+00 -6.6024902642656935e-01 -1.6477410889578590e+00 7.3414347751887044e-02 -5.9259430476214936e-01 
        </Neuron>
        <Neuron NSynapses="36">
          -5.9244228946341704e-01 1.6189901910389359e+00 8.4390919576840329e-01 1.0140183789398327e+00 -8.7479637037217484e-01 1.3427286535599541e+00 -1.8472130910675688e+00 3.1991796647743992e-01 -1.0973281824761678e+00 -1.5540202259636848e+00 8.4549679507521847e-01 8.5930676104855408e-01 -1.1047644730773375e-01 -1.4402044055043826e+00 4.5930272033232816e-01 6.4647790651789838e-01 -6.4788766199569059e-01 -8.9388760343349927e-01 1.9242748054826686e+00 -8.5499291275864020e-01 1.1507708189023536e+00 -1.4144196205365003e+00 -5.8381199729634181e-01 3.7072950645189001e-01 -2.0029044083240053e+00 -1.7151134481958852e+00 9.7135229987356275e-01 1.6144238132401569e+00 1.7227333257587361e+00 -7.2553597423878036e-01 -3.4902377167256726e-01 -8.8803090583699185e-01 -1.0666951052242317e+00 1.0771031254202190e+00 -1.5074594498951310e+00 -1.5354450390631542e+00 
        </Neuron>
        <Neuron NSynapses="36">
          1.2728699526280171e-01 -9.6344106876059910e-01 -2.0079863983637587e+00 -6.4811803210621277e-01 -8.8378479545346444e-02 -1.5343573426419430e+00 -2.2163444550345059e+00 -8.1100555207792613e-01 -8.0936087096452769e-01 -1.1459712259508825e+00 1.3282318142483265e+00 -8.4978232563715972e-01 -6.6611724126319871e-01 2.6667887497772003e+00 5.2235313069367051e-01 -3.9302705286498635e-01 1.3201887790917724e-01 1.4962875286019153e+00 1.3057562686407225e+00 -9.3737947655783382e-01 -1.2982872434115165e+00 -1.3740015247632995e-01 -1.7037547917459823e+00 9.1137378370473798e-01 1.0148139336758186e+00 1.0931805782787245e+00 1.4185311686623652e+00 1.3325898047311413e+00 5.5765147854315167e-01 -3.4076216783838503e-01 2.0974746053736846e+00 4.6491472672407225e-01 -1.9429444013465100e+00 2.7319195128603135e-01 -5.7794400440503635e-01 1.1733834016782243e+00 
        </Neuron>
        <Neuron NSynapses="36">
          2.4362551457594508e-01 3.5159701661364129e-01 2.7885061406478400e+00 -4.9627386118288458e-03 1.6932549312525953e+00 9.2750470124836004e-01 1.0175672349982512e+00 5.5388884562741925e-01 -6.3079261322677577e-02 -2.5487759174815565e+00 4.1772809288956975e-01 2.4839557516840896e+00 -7.3922599397635924e-01 -1.0086889871760774e-01 7.8377349904256266e-01 9.4482947885139057e-02 4.1741993170760111e-01 -4.8419966691165872e-01 9.1516224217293773e-01 -5.4977554993958433e-01 -4.8985161081633449e-02 1.2499155337404735e+00 1.5987941748976056e+00 -1.4419460198238756e+00 1.8758269907145231e-01 6.6097111183430013e-01 5.5970968358558115e-01 -1.6218774452915856e+00 -1.4560808895877317e+00 -5.2627947802074393e-01 -1.1989225958770813e+00 -3.5659875247687062e-01 -1.7557164900945270e+00 1.7542346028086027e+00 6.1047137584023203e-01 -2.1835940005020693e+00 
        </Neuron>
        <Neuron NSynapses="36">
          -1.8960725998064083e+00 -5.2170234901175883e-01 2.2668711625015301e+00 1.8473951455489626e+00 1.4567799305059825e+00 -6.3447853623981076e-01 -2.0742541519800337e+00 -4.3511463030205333e-01 -1.5956319780043045e+00 -1.6870953448944568e+00 -3.7670908487624510e-01 -1.2870104732772238e+00 -1.7398267129826832e+00 3.0320259280860125e+00 6.8040495791561728e-01 -1.7926775858676551e+00 6.5999005560443247e-01 -3.0865319995618778e-01 2.0065081999066856e+00 -3.7503929963028521e-01 -2.6651723508709074e-01 1.0798256104275150e+00 1.5075128106499058e+00 -8.8898285672931476e-01 3.6466288565096605e-01 -1.4633504563392832e+00 1.3299837174885971e+00 2.2166102020049419e+00 4.6959179946134616e-01 3.2892780726190018e-01 -5.3197095015979001e-01 -8.1264460038763087e-01 2.1207300222808159e+00 -2.6316053755926899e-01 3.0377313648829457e-01 -1.3885853258245755e+00 
        </Neuron>
        <Neuron NSynapses="36">
          3.2725760285362404e-01 2.6785002733380252e+00 6.1236109603784528e-01 -1.0424531346491734e+00 -2.3084061272393734e+00 1.7367693562728943e+00 9.6923901485523800e-01 -2.0216176559899854e+00 7.3842884687919419e-01 -1.3438943374236203e+00 1.1725096049543637e+00 1.6896788045460356e+00 -9.5336828366464599e-01 -1.6716026716834862e+00 1.0611923398651111e+00 4.1620334609735932e-01 1.3564919773274005e+00 -4.1683947237493846e-01 -8.3251651452019437e-01 -1.3828311466246732e+00 -8.1355795504728504e-02 1.0721310904900903e+00 1.8254824383911186e-01 -6.6299462332263337e-01 -3.9449677258491728e-01 -2.0080509705374641e+00 3.1638444104408392e-01 -1.6802044601961599e+00 -1.1740344138241679e-01 -9.4173950889267299e-01 2.7983556985677298e+00 1.3249432305020598e-01 -1.9532296691238991e+00 2.6655720114955828e+00 1.8467123649661543e+00 6.4199421074887131e-01 
        </Neuron>
        <Neuron NSynapses="36">
          -1.2936019749665262e+00 -9.3367514227397064e-01 9.8824885044497646e-01 -7.6300114560906729e-01 -2.4773770765893369e-01 -1.4255303953564531e+00 1.1281493013426984e+00 -1.9171818189352607e-01 -2.3380237107131346e-01 5.2120177592085856e-02 -8.1433835515600170e-02 6.1038657195593937e-01 -4.9136020362681160e-01 -1.3620320821098706e+00 3.5889358466052734e-01 2.0936364475965026e+00 6.9436457399235574e-01 -1.0114729346338716e+00 6.2727195874747266e-01 -3.1510724786568720e+00 4.4062335815312970e-01 1.4697595438382149e+00 7.4818795093313006e-01 1.0567890244865534e+00 9.9864887337520780e-01 -1.9685100145363625e+00 -1.3282299238351953e+00 -3.1585971271388641e-01 4.0057641439836472e-01 1.2066903618781246e+00 -1.2477782630622148e-02 -1.2264535874234110e+00 -3.2830208121481702e-01 -8.8312347699068749e-01 3.8828075348981056e-02 -1.7795037809389376e+00 
        </Neuron>
        <Neuron NSynapses="36">
          1.9406119803030657e+00 -5.4014255007655443e-01 -2.6385654216880144e-01 -1.6328674381050874e+00 1.2310315295633469e+00 -2.8751183788608470e-01 -5.5873241131749318e-01 -6.7220985746913875e-01 3.8293932323616081e-01 -1.4082801338418052e+00 -4.6248484692531161e-01 8.7690449650123126e-01 -7.5358508693415394e-01 -1.0072202587547840e+00 6.9588627636439582e-02 -3.0146493560886394e+00 -7.7607109555457965e-02 -8.2172665985298432e-01 1.3734484642009972e+00 -8.1091964093073365e-01 2.2702006988053491e+00 4.4603204966045018e-01 1.4059627787339704e+00 1.1531471198120713e+00 4.9711718028175039e-01 -1.2116482293578638e-01 -1.5018705077685228e+00 -1.6908462487117999e+00 -1.7320632063030865e+00 1.3663723897363798e+00 8.7613757746925791e-01 -9.3769797104218233e-01 1.3536401016262867e-01 1.2842148356528046e-01 -6.5272863235826921e-03 -1.1466378215699584e+00 
        </Neuron>
        <Neuron NSynapses="36">
          -3.3259936698772052e-01 -1.4494727714827278e+00 6.7066737160411971e-01 -2.8380307668325817e+00 3.9763532453415784e-01 -1.6790233833871424e-01 1.2966732475764020e+00 -1.8109303322935790e+00 -8.8238018219016556e-01 -1.8791056848831038e+00 -9.7868049275187563e-01 1.2423913738817791e+00 -1.9115680329378079e-01 -1.5177839159379061e-01 -1.7512677733161066e+00 4.2058946928657337e-01 -8.4934192323042657e-01 5.6765434263008607e-01 -9.3133262979500431e-01 -1.6913109224996872e+00 2.4074634433397142e+00 -7.9991606245557756e-01 1.3606401736770282e-01 -9.4942516609629091e-01 2.2180175812462966e+00 2.3978977883919979e+00 -2.9293946189938899e-02 -2.1848324145211819e+00 5.8567461106626095e-01 1.2981302613175489e+00 2.1916070332338172e-01 -2.2525769111800829e+00 -8.2707966988565262e-01 3.4972409336831195e-01 2.7626773011797301e-01 1.3711137790664358e+00 
        </Neuron>
      </Layer>
      <Layer Index="1" NNeurons="37">
        <Neuron NSynapses="2">
          1.7463288784820022e-01 -4.4306632566082160e-01 
        </Neuron>
        <Neuron NSynapses="2">
          -3.2604440653248157e-01 3.9490220883598764e-01 
        </Neuron>
        <Neuron NSynapses="2">
          -2.5186793738713797e-01 3.1127629492019843e-01 
        </Neuron>
        <Neuron NSynapses="2">
          6.0128412884771110e-01 2.0922374004247965e-01 
        </Neuron>
        <Neuron NSynapses="2">
          2.1724223119920427e-01 4.9765203548349829e-01 
        </Neuron>
        <Neuron NSynapses="2">
          3.4080036324242238e-02 -6.4299463902637896e-02 
        </Neuron>
        <Neuron NSynapses="2">
          -6.9880545636061986e-01 7.4886935800105103e-01 
        </Neuron>
        <Neuron NSynapses="2">
          -5.6482992462937642e-01 -1.4003496388070613e-01 
        </Neuron>
        <Neuron NSynapses="2">
          -4.4365914585616706e-01 2.0393313705353005e-02 
        </Neuron>
        <Neuron NSynapses="2">
          -2.3184900189471661e-01 2.5839977711484730e-01 
        </Neuron>
        <Neuron NSynapses="2">
          1.5719165978038105e-01 -3.1630329544786395e-01 
        </Neuron>
        <Neuron NSynapses="2">
          -1.1138105388587120e-01 -5.8551856373019233e-02 
        </Neuron>
        <Neuron NSynapses="2">
          1.4002532366730788e-01 -1.8301717886199803e-01 
        </Neuron>
        <Neuron NSynapses="2">
          1.2363812160834580e+00 -1.5018238085025113e+00 
        </Neuron>
        <Neuron NSynapses="2">
          -5.0467236990682455e-03 -2.3041113342465386e-01 
        </Neuron>
        <Neuron NSynapses="2">
          -6.4274548599384684e-01 6.8419256353878699e-01 
        </Neuron>
        <Neuron NSynapses="2">
          8.8274168437262301e-01 -4.7285579464014932e-01 
        </Neuron>
        <Neuron NSynapses="2">
          -7.7098371116665632e-01 6.2675964634221892e-01 
        </Neuron>
        <Neuron NSynapses="2">
          -9.2968812934257339e-01 9.6940389413254013e-01 
        </Neuron>
        <Neuron NSynapses="2">
          1.4486685744242400e-01 -3.2803800793751259e-01 
        </Neuron>
        <Neuron NSynapses="2">
          -4.8433038613380691e-01 1.0018831562387689e+00 
        </Neuron>
        <Neuron NSynapses="2">
          -2.7050901863714105e-01 3.5770583574195280e-01 
        </Neuron>
        <Neuron NSynapses="2">
          1.7906716122594885e-01 -3.5225929687886548e-01 
        </Neuron>
        <Neuron NSynapses="2">
          -2.6838821200184831e-01 4.2797764387794490e-01 
        </Neuron>
        <Neuron NSynapses="2">
          -6.7256614224769751e-01 1.6600195095852549e-01 
        </Neuron>
        <Neuron NSynapses="2">
          7.8501835953333843e-01 -1.0861109683209360e+00 
        </Neuron>
        <Neuron NSynapses="2">
          -7.4919317359334459e-01 -2.1448612239843648e-01 
        </Neuron>
        <Neuron NSynapses="2">
          5.1858410316796566e-01 3.0092233347570013e-01 
        </Neuron>
        <Neuron NSynapses="2">
          -4.8169386900693095e-01 5.4572809903570862e-01 
        </Neuron>
        <Neuron NSynapses="2">
          -6.5466486436288196e-01 -7.5705097986626002e-01 
        </Neuron>
        <Neuron NSynapses="2">
          -3.4568708040559765e-01 3.0449392866957808e-01 
        </Neuron>
        <Neuron NSynapses="2">
          1.0108319765979497e+00 -1.3706651886694825e+00 
        </Neuron>
        <Neuron NSynapses="2">
          6.6318896468335761e-02 -9.6303750751556130e-02 
        </Neuron>
        <Neuron NSynapses="2">
          1.3541869199507315e+00 -8.8926492505737975e-01 
        </Neuron>
        <Neuron NSynapses="2">
          -2.3099337706335463e-01 4.8744961005550719e-01 
        </Neuron>
        <Neuron NSynapses="2">
          -1.9225482434603738e-01 2.7395726399438047e-01 
        </Neuron>
        <Neuron NSynapses="2">
          1.8657282584839068e+00 -1.2635585473716870e+00 
        </Neuron>
      </Layer>
      <Layer Index="2" NNeurons="2">
        <Neuron NSynapses="0"/>
        <Neuron NSynapses="0"/>
      </Layer>
    </Layout>
  </Weights>
</MethodSetup>
